digraph Tree {
node [shape=box, style="filled, rounded", color="black", fontname="helvetica"] ;
edge [fontname="helvetica"] ;
0 [label="eqty_tot_to_asst_tot <= -1.145\ngini = 0.025\nsamples = 817305\nvalue = [806959, 10346]\nclass = 0", fillcolor="#e5833c"] ;
1 [label="profit_to_asst_tot_chg_1y <= -2.21\ngini = 0.438\nsamples = 7285\nvalue = [4923, 2362]\nclass = 0", fillcolor="#f1bd98"] ;
0 -> 1 [labeldistance=2.5, labelangle=45, headlabel="True"] ;
2 [label="debt_bank_st_to_asst_tot <= -0.127\ngini = 0.487\nsamples = 2243\nvalue = [944, 1299]\nclass = 1", fillcolor="#c9e4f8"] ;
1 -> 2 ;
3 [label="roa_chg_1y <= -6.525\ngini = 0.459\nsamples = 682\nvalue = [439, 243]\nclass = 0", fillcolor="#f3c7a7"] ;
2 -> 3 ;
4 [label="debt_lt_to_asst_tot_chg_1y <= -0.011\ngini = 0.5\nsamples = 185\nvalue = [91, 94]\nclass = 1", fillcolor="#f9fcfe"] ;
3 -> 4 ;
5 [label="debt_st_to_deb_tot_chg_1y <= 3.728\ngini = 0.353\nsamples = 35\nvalue = [8, 27]\nclass = 1", fillcolor="#74baed"] ;
4 -> 5 ;
6 [label="AP_st_to_asst_tot <= 5.729\ngini = 0.231\nsamples = 30\nvalue = [4, 26]\nclass = 1", fillcolor="#57ace9"] ;
5 -> 6 ;
7 [label="gini = 0.137\nsamples = 27\nvalue = [2, 25]\nclass = 1", fillcolor="#49a5e7"] ;
6 -> 7 ;
8 [label="gini = 0.444\nsamples = 3\nvalue = [2, 1]\nclass = 0", fillcolor="#f2c09c"] ;
6 -> 8 ;
9 [label="AR_to_asst_tot_chg_1y <= 10.007\ngini = 0.32\nsamples = 5\nvalue = [4, 1]\nclass = 0", fillcolor="#eca06a"] ;
5 -> 9 ;
10 [label="gini = 0.0\nsamples = 4\nvalue = [4, 0]\nclass = 0", fillcolor="#e58139"] ;
9 -> 10 ;
11 [label="gini = 0.0\nsamples = 1\nvalue = [0, 1]\nclass = 1", fillcolor="#399de5"] ;
9 -> 11 ;
12 [label="AP_st_to_asst_tot <= 3.069\ngini = 0.494\nsamples = 150\nvalue = [83, 67]\nclass = 0", fillcolor="#fae7d9"] ;
4 -> 12 ;
13 [label="debt_st_to_asst_tot <= -1.432\ngini = 0.463\nsamples = 118\nvalue = [75, 43]\nclass = 0", fillcolor="#f4c9ab"] ;
12 -> 13 ;
14 [label="gini = 0.0\nsamples = 7\nvalue = [0, 7]\nclass = 1", fillcolor="#399de5"] ;
13 -> 14 ;
15 [label="gini = 0.438\nsamples = 111\nvalue = [75, 36]\nclass = 0", fillcolor="#f1bd98"] ;
13 -> 15 ;
16 [label="asst_current_to_asst_tot_chg_1y <= -1.645\ngini = 0.375\nsamples = 32\nvalue = [8, 24]\nclass = 1", fillcolor="#7bbeee"] ;
12 -> 16 ;
17 [label="gini = 0.32\nsamples = 5\nvalue = [4, 1]\nclass = 0", fillcolor="#eca06a"] ;
16 -> 17 ;
18 [label="gini = 0.252\nsamples = 27\nvalue = [4, 23]\nclass = 1", fillcolor="#5baeea"] ;
16 -> 18 ;
19 [label="debt_bank_lt_to_asst_tot_chg_1y <= -0.316\ngini = 0.42\nsamples = 497\nvalue = [348, 149]\nclass = 0", fillcolor="#f0b78e"] ;
3 -> 19 ;
20 [label="debt_st_to_eqty_tot <= -0.006\ngini = 0.496\nsamples = 55\nvalue = [25, 30]\nclass = 1", fillcolor="#deeffb"] ;
19 -> 20 ;
21 [label="gini = 0.0\nsamples = 10\nvalue = [0, 10]\nclass = 1", fillcolor="#399de5"] ;
20 -> 21 ;
22 [label="liab_lt_to_asst_tot <= 1.259\ngini = 0.494\nsamples = 45\nvalue = [25, 20]\nclass = 0", fillcolor="#fae6d7"] ;
20 -> 22 ;
23 [label="gini = 0.46\nsamples = 39\nvalue = [25, 14]\nclass = 0", fillcolor="#f4c8a8"] ;
22 -> 23 ;
24 [label="gini = 0.0\nsamples = 6\nvalue = [0, 6]\nclass = 1", fillcolor="#399de5"] ;
22 -> 24 ;
25 [label="liab_lt_to_asst_tot_chg_1y <= 0.004\ngini = 0.393\nsamples = 442\nvalue = [323, 119]\nclass = 0", fillcolor="#efaf82"] ;
19 -> 25 ;
26 [label="liab_lt_emp_to_asst_tot <= 4.053\ngini = 0.318\nsamples = 282\nvalue = [226, 56]\nclass = 0", fillcolor="#eba06a"] ;
25 -> 26 ;
27 [label="gini = 0.3\nsamples = 277\nvalue = [226, 51]\nclass = 0", fillcolor="#eb9d66"] ;
26 -> 27 ;
28 [label="gini = 0.0\nsamples = 5\nvalue = [0, 5]\nclass = 1", fillcolor="#399de5"] ;
26 -> 28 ;
29 [label="AP_st_to_asst_tot_chg_1y <= -0.242\ngini = 0.477\nsamples = 160\nvalue = [97, 63]\nclass = 0", fillcolor="#f6d3ba"] ;
25 -> 29 ;
30 [label="gini = 0.383\nsamples = 31\nvalue = [8, 23]\nclass = 1", fillcolor="#7ebfee"] ;
29 -> 30 ;
31 [label="gini = 0.428\nsamples = 129\nvalue = [89, 40]\nclass = 0", fillcolor="#f1ba92"] ;
29 -> 31 ;
32 [label="debt_st_to_asst_tot_chg_1y <= 1.368\ngini = 0.438\nsamples = 1561\nvalue = [505, 1056]\nclass = 1", fillcolor="#98ccf1"] ;
2 -> 32 ;
33 [label="inc_financing_to_asst_tot <= -0.353\ngini = 0.497\nsamples = 277\nvalue = [149, 128]\nclass = 0", fillcolor="#fbede3"] ;
32 -> 33 ;
34 [label="asst_intang_fixed_to_asst_tot_chg_1y <= -0.006\ngini = 0.495\nsamples = 194\nvalue = [87, 107]\nclass = 1", fillcolor="#daedfa"] ;
33 -> 34 ;
35 [label="asst_tang_fixed_to_asst_tot_chg_1y <= 2.478\ngini = 0.35\nsamples = 62\nvalue = [14, 48]\nclass = 1", fillcolor="#73baed"] ;
34 -> 35 ;
36 [label="gini = 0.303\nsamples = 59\nvalue = [11, 48]\nclass = 1", fillcolor="#66b3eb"] ;
35 -> 36 ;
37 [label="gini = 0.0\nsamples = 3\nvalue = [3, 0]\nclass = 0", fillcolor="#e58139"] ;
35 -> 37 ;
38 [label="long_interest_rates <= -0.18\ngini = 0.494\nsamples = 132\nvalue = [73, 59]\nclass = 0", fillcolor="#fae7d9"] ;
34 -> 38 ;
39 [label="gini = 0.49\nsamples = 72\nvalue = [31, 41]\nclass = 1", fillcolor="#cfe7f9"] ;
38 -> 39 ;
40 [label="gini = 0.42\nsamples = 60\nvalue = [42, 18]\nclass = 0", fillcolor="#f0b78e"] ;
38 -> 40 ;
41 [label="AR_to_asst_tot <= -0.538\ngini = 0.378\nsamples = 83\nvalue = [62, 21]\nclass = 0", fillcolor="#eeac7c"] ;
33 -> 41 ;
42 [label="gini = 0.0\nsamples = 24\nvalue = [24, 0]\nclass = 0", fillcolor="#e58139"] ;
41 -> 42 ;
43 [label="wc_net_to_asst_tot <= -0.644\ngini = 0.458\nsamples = 59\nvalue = [38, 21]\nclass = 0", fillcolor="#f3c7a6"] ;
41 -> 43 ;
44 [label="gini = 0.257\nsamples = 33\nvalue = [28, 5]\nclass = 0", fillcolor="#ea985c"] ;
43 -> 44 ;
45 [label="gini = 0.473\nsamples = 26\nvalue = [10, 16]\nclass = 1", fillcolor="#b5daf5"] ;
43 -> 45 ;
46 [label="exp_financing_to_asst_tot <= 0.032\ngini = 0.401\nsamples = 1284\nvalue = [356, 928]\nclass = 1", fillcolor="#85c3ef"] ;
32 -> 46 ;
47 [label="liab_lt_emp_to_asst_tot_chg_1y <= -0.115\ngini = 0.489\nsamples = 110\nvalue = [63, 47]\nclass = 0", fillcolor="#f8dfcd"] ;
46 -> 47 ;
48 [label="profit_to_asst_tot <= -2.447\ngini = 0.165\nsamples = 11\nvalue = [1, 10]\nclass = 1", fillcolor="#4da7e8"] ;
47 -> 48 ;
49 [label="gini = 0.0\nsamples = 10\nvalue = [0, 10]\nclass = 1", fillcolor="#399de5"] ;
48 -> 49 ;
50 [label="gini = 0.0\nsamples = 1\nvalue = [1, 0]\nclass = 0", fillcolor="#e58139"] ;
48 -> 50 ;
51 [label="COGS_to_asst_tot <= 0.002\ngini = 0.468\nsamples = 99\nvalue = [62, 37]\nclass = 0", fillcolor="#f5ccaf"] ;
47 -> 51 ;
52 [label="gini = 0.213\nsamples = 33\nvalue = [29, 4]\nclass = 0", fillcolor="#e99254"] ;
51 -> 52 ;
53 [label="gini = 0.5\nsamples = 66\nvalue = [33, 33]\nclass = 0", fillcolor="#ffffff"] ;
51 -> 53 ;
54 [label="AP_st_to_asst_tot_chg_1y <= -0.073\ngini = 0.375\nsamples = 1174\nvalue = [293, 881]\nclass = 1", fillcolor="#7bbeee"] ;
46 -> 54 ;
55 [label="debt_bank_lt_to_asst_tot_chg_1y <= 0.806\ngini = 0.497\nsamples = 155\nvalue = [72, 83]\nclass = 1", fillcolor="#e5f2fc"] ;
54 -> 55 ;
56 [label="gini = 0.498\nsamples = 124\nvalue = [66, 58]\nclass = 0", fillcolor="#fcf0e7"] ;
55 -> 56 ;
57 [label="gini = 0.312\nsamples = 31\nvalue = [6, 25]\nclass = 1", fillcolor="#69b5eb"] ;
55 -> 57 ;
58 [label="asst_tang_fixed_to_asst_tot_chg_1y <= -0.034\ngini = 0.34\nsamples = 1019\nvalue = [221, 798]\nclass = 1", fillcolor="#70b8ec"] ;
54 -> 58 ;
59 [label="gini = 0.427\nsamples = 327\nvalue = [101, 226]\nclass = 1", fillcolor="#91c9f1"] ;
58 -> 59 ;
60 [label="gini = 0.287\nsamples = 692\nvalue = [120, 572]\nclass = 1", fillcolor="#63b2ea"] ;
58 -> 60 ;
61 [label="profit_to_asst_tot <= -1.652\ngini = 0.333\nsamples = 5042\nvalue = [3979, 1063]\nclass = 0", fillcolor="#eca36e"] ;
1 -> 61 ;
62 [label="debt_bank_st_to_asst_tot <= -0.217\ngini = 0.428\nsamples = 2057\nvalue = [1419, 638]\nclass = 0", fillcolor="#f1ba92"] ;
61 -> 62 ;
63 [label="liab_lt_emp_to_asst_tot_chg_1y <= -0.627\ngini = 0.333\nsamples = 858\nvalue = [677, 181]\nclass = 0", fillcolor="#eca36e"] ;
62 -> 63 ;
64 [label="liq_cfo_ratio <= -0.003\ngini = 0.499\nsamples = 59\nvalue = [31, 28]\nclass = 0", fillcolor="#fcf3ec"] ;
63 -> 64 ;
65 [label="debt_st_to_eqty_tot <= -0.006\ngini = 0.457\nsamples = 34\nvalue = [12, 22]\nclass = 1", fillcolor="#a5d2f3"] ;
64 -> 65 ;
66 [label="gini = 0.32\nsamples = 10\nvalue = [8, 2]\nclass = 0", fillcolor="#eca06a"] ;
65 -> 66 ;
67 [label="gini = 0.278\nsamples = 24\nvalue = [4, 20]\nclass = 1", fillcolor="#61b1ea"] ;
65 -> 67 ;
68 [label="profit_to_asst_tot_chg_1y <= -0.88\ngini = 0.365\nsamples = 25\nvalue = [19, 6]\nclass = 0", fillcolor="#eda978"] ;
64 -> 68 ;
69 [label="gini = 0.48\nsamples = 10\nvalue = [4, 6]\nclass = 1", fillcolor="#bddef6"] ;
68 -> 69 ;
70 [label="gini = 0.0\nsamples = 15\nvalue = [15, 0]\nclass = 0", fillcolor="#e58139"] ;
68 -> 70 ;
71 [label="eqty_tot_to_asst_tot <= -2.944\ngini = 0.31\nsamples = 799\nvalue = [646, 153]\nclass = 0", fillcolor="#eb9f68"] ;
63 -> 71 ;
72 [label="cash_and_equiv_to_asst_tot <= 0.168\ngini = 0.452\nsamples = 90\nvalue = [59, 31]\nclass = 0", fillcolor="#f3c3a1"] ;
71 -> 72 ;
73 [label="gini = 0.497\nsamples = 63\nvalue = [34, 29]\nclass = 0", fillcolor="#fbece2"] ;
72 -> 73 ;
74 [label="gini = 0.137\nsamples = 27\nvalue = [25, 2]\nclass = 0", fillcolor="#e78b49"] ;
72 -> 74 ;
75 [label="debt_st_to_eqty_tot_chg_1y <= -0.004\ngini = 0.285\nsamples = 709\nvalue = [587, 122]\nclass = 0", fillcolor="#ea9b62"] ;
71 -> 75 ;
76 [label="gini = 0.462\nsamples = 69\nvalue = [44, 25]\nclass = 0", fillcolor="#f4c9aa"] ;
75 -> 76 ;
77 [label="gini = 0.257\nsamples = 640\nvalue = [543, 97]\nclass = 0", fillcolor="#ea985c"] ;
75 -> 77 ;
78 [label="asst_intang_fixed_to_asst_tot <= 0.111\ngini = 0.472\nsamples = 1199\nvalue = [742, 457]\nclass = 0", fillcolor="#f5cfb3"] ;
62 -> 78 ;
79 [label="prof_operations_to_asst_tot <= -0.424\ngini = 0.493\nsamples = 799\nvalue = [446, 353]\nclass = 0", fillcolor="#fae5d6"] ;
78 -> 79 ;
80 [label="exp_financing_to_asst_tot <= -0.016\ngini = 0.47\nsamples = 180\nvalue = [68, 112]\nclass = 1", fillcolor="#b1d8f5"] ;
79 -> 80 ;
81 [label="gini = 0.403\nsamples = 25\nvalue = [18, 7]\nclass = 0", fillcolor="#efb286"] ;
80 -> 81 ;
82 [label="gini = 0.437\nsamples = 155\nvalue = [50, 105]\nclass = 1", fillcolor="#97ccf1"] ;
80 -> 82 ;
83 [label="debt_st_to_eqty_tot_chg_1y <= -0.001\ngini = 0.476\nsamples = 619\nvalue = [378, 241]\nclass = 0", fillcolor="#f6d1b7"] ;
79 -> 83 ;
84 [label="gini = 0.499\nsamples = 251\nvalue = [121, 130]\nclass = 1", fillcolor="#f1f8fd"] ;
83 -> 84 ;
85 [label="gini = 0.421\nsamples = 368\nvalue = [257, 111]\nclass = 0", fillcolor="#f0b78f"] ;
83 -> 85 ;
86 [label="wc_net_to_asst_tot_chg_1y <= -0.956\ngini = 0.385\nsamples = 400\nvalue = [296, 104]\nclass = 0", fillcolor="#eead7f"] ;
78 -> 86 ;
87 [label="liab_tot <= -0.032\ngini = 0.468\nsamples = 161\nvalue = [101, 60]\nclass = 0", fillcolor="#f4ccaf"] ;
86 -> 87 ;
88 [label="gini = 0.385\nsamples = 96\nvalue = [71, 25]\nclass = 0", fillcolor="#eead7f"] ;
87 -> 88 ;
89 [label="gini = 0.497\nsamples = 65\nvalue = [30, 35]\nclass = 1", fillcolor="#e3f1fb"] ;
87 -> 89 ;
90 [label="debt_st_to_asst_tot <= 2.423\ngini = 0.3\nsamples = 239\nvalue = [195, 44]\nclass = 0", fillcolor="#eb9d66"] ;
86 -> 90 ;
91 [label="gini = 0.238\nsamples = 203\nvalue = [175, 28]\nclass = 0", fillcolor="#e99559"] ;
90 -> 91 ;
92 [label="gini = 0.494\nsamples = 36\nvalue = [20, 16]\nclass = 0", fillcolor="#fae6d7"] ;
90 -> 92 ;
93 [label="eqty_tot_to_asst_tot_chg_1y <= -0.898\ngini = 0.244\nsamples = 2985\nvalue = [2560, 425]\nclass = 0", fillcolor="#e9965a"] ;
61 -> 93 ;
94 [label="inc_financing_to_asst_tot <= 0.237\ngini = 0.356\nsamples = 1087\nvalue = [835, 252]\nclass = 0", fillcolor="#eda775"] ;
93 -> 94 ;
95 [label="inc_extraord_to_asst_tot_chg_1y <= -0.064\ngini = 0.387\nsamples = 922\nvalue = [680, 242]\nclass = 0", fillcolor="#eeae7f"] ;
94 -> 95 ;
96 [label="prof_financing_to_asst_tot_chg_1y <= 0.096\ngini = 0.46\nsamples = 299\nvalue = [192, 107]\nclass = 0", fillcolor="#f3c7a7"] ;
95 -> 96 ;
97 [label="gini = 0.449\nsamples = 291\nvalue = [192, 99]\nclass = 0", fillcolor="#f2c29f"] ;
96 -> 97 ;
98 [label="gini = 0.0\nsamples = 8\nvalue = [0, 8]\nclass = 1", fillcolor="#399de5"] ;
96 -> 98 ;
99 [label="debt_st_to_deb_tot <= -0.465\ngini = 0.339\nsamples = 623\nvalue = [488, 135]\nclass = 0", fillcolor="#eca470"] ;
95 -> 99 ;
100 [label="gini = 0.177\nsamples = 184\nvalue = [166, 18]\nclass = 0", fillcolor="#e88f4e"] ;
99 -> 100 ;
101 [label="gini = 0.391\nsamples = 439\nvalue = [322, 117]\nclass = 0", fillcolor="#eeaf81"] ;
99 -> 101 ;
102 [label="exp_financing_to_asst_tot_chg_1y <= -1.752\ngini = 0.114\nsamples = 165\nvalue = [155, 10]\nclass = 0", fillcolor="#e78946"] ;
94 -> 102 ;
103 [label="inc_financing_to_asst_tot_chg_1y <= 1.116\ngini = 0.5\nsamples = 6\nvalue = [3, 3]\nclass = 0", fillcolor="#ffffff"] ;
102 -> 103 ;
104 [label="gini = 0.0\nsamples = 3\nvalue = [0, 3]\nclass = 1", fillcolor="#399de5"] ;
103 -> 104 ;
105 [label="gini = 0.0\nsamples = 3\nvalue = [3, 0]\nclass = 0", fillcolor="#e58139"] ;
103 -> 105 ;
106 [label="liab_lt_to_asst_tot_chg_1y <= 51.278\ngini = 0.084\nsamples = 159\nvalue = [152, 7]\nclass = 0", fillcolor="#e68742"] ;
102 -> 106 ;
107 [label="gini = 0.073\nsamples = 158\nvalue = [152, 6]\nclass = 0", fillcolor="#e68641"] ;
106 -> 107 ;
108 [label="gini = 0.0\nsamples = 1\nvalue = [0, 1]\nclass = 1", fillcolor="#399de5"] ;
106 -> 108 ;
109 [label="profit_to_asst_tot_chg_1y <= 2.335\ngini = 0.166\nsamples = 1898\nvalue = [1725, 173]\nclass = 0", fillcolor="#e88e4d"] ;
93 -> 109 ;
110 [label="debt_st_to_eqty_tot <= -0.006\ngini = 0.145\nsamples = 1771\nvalue = [1632, 139]\nclass = 0", fillcolor="#e78c4a"] ;
109 -> 110 ;
111 [label="debt_st_to_eqty_tot <= -0.006\ngini = 0.243\nsamples = 438\nvalue = [376, 62]\nclass = 0", fillcolor="#e9965a"] ;
110 -> 111 ;
112 [label="gini = 0.0\nsamples = 2\nvalue = [0, 2]\nclass = 1", fillcolor="#399de5"] ;
111 -> 112 ;
113 [label="gini = 0.237\nsamples = 436\nvalue = [376, 60]\nclass = 0", fillcolor="#e99559"] ;
111 -> 113 ;
114 [label="debt_fin_lt_to_asst_tot_chg_1y <= -1.335\ngini = 0.109\nsamples = 1333\nvalue = [1256, 77]\nclass = 0", fillcolor="#e78945"] ;
110 -> 114 ;
115 [label="gini = 0.473\nsamples = 13\nvalue = [8, 5]\nclass = 0", fillcolor="#f5d0b5"] ;
114 -> 115 ;
116 [label="gini = 0.103\nsamples = 1320\nvalue = [1248, 72]\nclass = 0", fillcolor="#e68844"] ;
114 -> 116 ;
117 [label="profit_to_asst_tot <= 0.058\ngini = 0.392\nsamples = 127\nvalue = [93, 34]\nclass = 0", fillcolor="#efaf81"] ;
109 -> 117 ;
118 [label="cash_and_equiv_to_asst_tot_chg_1y <= 0.027\ngini = 0.469\nsamples = 88\nvalue = [55, 33]\nclass = 0", fillcolor="#f5cdb0"] ;
117 -> 118 ;
119 [label="gini = 0.5\nsamples = 54\nvalue = [27, 27]\nclass = 0", fillcolor="#ffffff"] ;
118 -> 119 ;
120 [label="gini = 0.291\nsamples = 34\nvalue = [28, 6]\nclass = 0", fillcolor="#eb9c63"] ;
118 -> 120 ;
121 [label="prof_operations_to_asst_tot_chg_1y <= 1.237\ngini = 0.05\nsamples = 39\nvalue = [38, 1]\nclass = 0", fillcolor="#e6843e"] ;
117 -> 121 ;
122 [label="gini = 0.0\nsamples = 38\nvalue = [38, 0]\nclass = 0", fillcolor="#e58139"] ;
121 -> 122 ;
123 [label="gini = 0.0\nsamples = 1\nvalue = [0, 1]\nclass = 1", fillcolor="#399de5"] ;
121 -> 123 ;
124 [label="cf_operations_to_asst_tot <= -0.13\ngini = 0.02\nsamples = 810020\nvalue = [802036, 7984]\nclass = 0", fillcolor="#e5823b"] ;
0 -> 124 [labeldistance=2.5, labelangle=-45, headlabel="False"] ;
125 [label="debt_st_to_eqty_tot <= -0.006\ngini = 0.131\nsamples = 26946\nvalue = [25042, 1904]\nclass = 0", fillcolor="#e78b48"] ;
124 -> 125 ;
126 [label="cf_operations_to_asst_tot_chg_1y <= -0.117\ngini = 0.276\nsamples = 3937\nvalue = [3285, 652]\nclass = 0", fillcolor="#ea9a60"] ;
125 -> 126 ;
127 [label="debt_bank_st_to_asst_tot <= -0.409\ngini = 0.408\nsamples = 975\nvalue = [697, 278]\nclass = 0", fillcolor="#efb388"] ;
126 -> 127 ;
128 [label="profit_to_asst_tot <= -0.591\ngini = 0.24\nsamples = 222\nvalue = [191, 31]\nclass = 0", fillcolor="#e99559"] ;
127 -> 128 ;
129 [label="asst_fixed_fin_to_asst_tot <= 4.867\ngini = 0.223\nsamples = 219\nvalue = [191, 28]\nclass = 0", fillcolor="#e99356"] ;
128 -> 129 ;
130 [label="gini = 0.211\nsamples = 217\nvalue = [191, 26]\nclass = 0", fillcolor="#e99254"] ;
129 -> 130 ;
131 [label="gini = 0.0\nsamples = 2\nvalue = [0, 2]\nclass = 1", fillcolor="#399de5"] ;
129 -> 131 ;
132 [label="gini = 0.0\nsamples = 3\nvalue = [0, 3]\nclass = 1", fillcolor="#399de5"] ;
128 -> 132 ;
133 [label="eqty_tot_to_asst_tot_chg_1y <= -1.886\ngini = 0.441\nsamples = 753\nvalue = [506, 247]\nclass = 0", fillcolor="#f2bf9a"] ;
127 -> 133 ;
134 [label="asst_tot <= -0.008\ngini = 0.496\nsamples = 220\nvalue = [120, 100]\nclass = 0", fillcolor="#fbeade"] ;
133 -> 134 ;
135 [label="gini = 0.468\nsamples = 163\nvalue = [102, 61]\nclass = 0", fillcolor="#f5ccaf"] ;
134 -> 135 ;
136 [label="gini = 0.432\nsamples = 57\nvalue = [18, 39]\nclass = 1", fillcolor="#94caf1"] ;
134 -> 136 ;
137 [label="debt_st_to_ebitda_chg_1y <= 0.005\ngini = 0.399\nsamples = 533\nvalue = [386, 147]\nclass = 0", fillcolor="#efb184"] ;
133 -> 137 ;
138 [label="gini = 0.452\nsamples = 290\nvalue = [190, 100]\nclass = 0", fillcolor="#f3c3a1"] ;
137 -> 138 ;
139 [label="gini = 0.312\nsamples = 243\nvalue = [196, 47]\nclass = 0", fillcolor="#eb9f68"] ;
137 -> 139 ;
140 [label="eqty_tot_to_asst_tot_chg_1y <= -0.889\ngini = 0.221\nsamples = 2962\nvalue = [2588, 374]\nclass = 0", fillcolor="#e99356"] ;
126 -> 140 ;
141 [label="debt_bank_st_to_asst_tot <= -0.737\ngini = 0.305\nsamples = 724\nvalue = [588, 136]\nclass = 0", fillcolor="#eb9e67"] ;
140 -> 141 ;
142 [label="debt_st_to_eqty_tot_chg_1y <= -0.006\ngini = 0.134\nsamples = 125\nvalue = [116, 9]\nclass = 0", fillcolor="#e78b48"] ;
141 -> 142 ;
143 [label="gini = 0.32\nsamples = 40\nvalue = [32, 8]\nclass = 0", fillcolor="#eca06a"] ;
142 -> 143 ;
144 [label="gini = 0.023\nsamples = 85\nvalue = [84, 1]\nclass = 0", fillcolor="#e5823b"] ;
142 -> 144 ;
145 [label="debt_fin_st_to_asst_tot_chg_1y <= 1.704\ngini = 0.334\nsamples = 599\nvalue = [472, 127]\nclass = 0", fillcolor="#eca36e"] ;
141 -> 145 ;
146 [label="gini = 0.322\nsamples = 584\nvalue = [466, 118]\nclass = 0", fillcolor="#eca16b"] ;
145 -> 146 ;
147 [label="gini = 0.48\nsamples = 15\nvalue = [6, 9]\nclass = 1", fillcolor="#bddef6"] ;
145 -> 147 ;
148 [label="debt_st_to_deb_tot <= -0.408\ngini = 0.19\nsamples = 2238\nvalue = [2000, 238]\nclass = 0", fillcolor="#e89051"] ;
140 -> 148 ;
149 [label="margin_fin_to_asst_tot_chg_1y <= -2.011\ngini = 0.109\nsamples = 451\nvalue = [425, 26]\nclass = 0", fillcolor="#e78945"] ;
148 -> 149 ;
150 [label="gini = 0.498\nsamples = 15\nvalue = [7, 8]\nclass = 1", fillcolor="#e6f3fc"] ;
149 -> 150 ;
151 [label="gini = 0.079\nsamples = 436\nvalue = [418, 18]\nclass = 0", fillcolor="#e68642"] ;
149 -> 151 ;
152 [label="debt_bank_lt_to_asst_tot <= -0.553\ngini = 0.209\nsamples = 1787\nvalue = [1575, 212]\nclass = 0", fillcolor="#e89254"] ;
148 -> 152 ;
153 [label="gini = 0.17\nsamples = 1118\nvalue = [1013, 105]\nclass = 0", fillcolor="#e88e4e"] ;
152 -> 153 ;
154 [label="gini = 0.269\nsamples = 669\nvalue = [562, 107]\nclass = 0", fillcolor="#ea995f"] ;
152 -> 154 ;
155 [label="debt_st_to_eqty_tot_chg_1y <= -0.0\ngini = 0.103\nsamples = 23009\nvalue = [21757, 1252]\nclass = 0", fillcolor="#e68844"] ;
125 -> 155 ;
156 [label="RE_to_asst_tot <= -0.912\ngini = 0.079\nsamples = 18420\nvalue = [17665, 755]\nclass = 0", fillcolor="#e68641"] ;
155 -> 156 ;
157 [label="prof_operations_to_asst_tot_chg_1y <= -0.089\ngini = 0.108\nsamples = 6635\nvalue = [6256, 379]\nclass = 0", fillcolor="#e78945"] ;
156 -> 157 ;
158 [label="cash_and_equiv_to_asst_tot_chg_1y <= 11.126\ngini = 0.166\nsamples = 1657\nvalue = [1506, 151]\nclass = 0", fillcolor="#e88e4d"] ;
157 -> 158 ;
159 [label="gini = 0.163\nsamples = 1654\nvalue = [1506, 148]\nclass = 0", fillcolor="#e88d4c"] ;
158 -> 159 ;
160 [label="gini = 0.0\nsamples = 3\nvalue = [0, 3]\nclass = 1", fillcolor="#399de5"] ;
158 -> 160 ;
161 [label="RE_to_asst_tot <= -0.913\ngini = 0.087\nsamples = 4978\nvalue = [4750, 228]\nclass = 0", fillcolor="#e68743"] ;
157 -> 161 ;
162 [label="gini = 0.087\nsamples = 4976\nvalue = [4750, 226]\nclass = 0", fillcolor="#e68742"] ;
161 -> 162 ;
163 [label="gini = 0.0\nsamples = 2\nvalue = [0, 2]\nclass = 1", fillcolor="#399de5"] ;
161 -> 163 ;
164 [label="debt_st_to_eqty_tot <= 0.186\ngini = 0.062\nsamples = 11785\nvalue = [11409, 376]\nclass = 0", fillcolor="#e68540"] ;
156 -> 164 ;
165 [label="RE_to_asst_tot <= 27.683\ngini = 0.061\nsamples = 11779\nvalue = [11407, 372]\nclass = 0", fillcolor="#e6853f"] ;
164 -> 165 ;
166 [label="gini = 0.061\nsamples = 11774\nvalue = [11405, 369]\nclass = 0", fillcolor="#e6853f"] ;
165 -> 166 ;
167 [label="gini = 0.48\nsamples = 5\nvalue = [2, 3]\nclass = 1", fillcolor="#bddef6"] ;
165 -> 167 ;
168 [label="exp_financing_to_asst_tot <= -0.21\ngini = 0.444\nsamples = 6\nvalue = [2, 4]\nclass = 1", fillcolor="#9ccef2"] ;
164 -> 168 ;
169 [label="gini = 0.0\nsamples = 2\nvalue = [2, 0]\nclass = 0", fillcolor="#e58139"] ;
168 -> 169 ;
170 [label="gini = 0.0\nsamples = 4\nvalue = [0, 4]\nclass = 1", fillcolor="#399de5"] ;
168 -> 170 ;
171 [label="debt_bank_st_to_asst_tot <= 0.541\ngini = 0.193\nsamples = 4589\nvalue = [4092, 497]\nclass = 0", fillcolor="#e89051"] ;
155 -> 171 ;
172 [label="roe_chg_1y <= 0.124\ngini = 0.145\nsamples = 2893\nvalue = [2666, 227]\nclass = 0", fillcolor="#e78c4a"] ;
171 -> 172 ;
173 [label="AR_to_asst_tot_chg_1y <= -9.427\ngini = 0.105\nsamples = 1595\nvalue = [1506, 89]\nclass = 0", fillcolor="#e78845"] ;
172 -> 173 ;
174 [label="gini = 0.0\nsamples = 2\nvalue = [0, 2]\nclass = 1", fillcolor="#399de5"] ;
173 -> 174 ;
175 [label="gini = 0.103\nsamples = 1593\nvalue = [1506, 87]\nclass = 0", fillcolor="#e78844"] ;
173 -> 175 ;
176 [label="roa_chg_1y <= -0.876\ngini = 0.19\nsamples = 1298\nvalue = [1160, 138]\nclass = 0", fillcolor="#e89051"] ;
172 -> 176 ;
177 [label="gini = 0.242\nsamples = 674\nvalue = [579, 95]\nclass = 0", fillcolor="#e99659"] ;
176 -> 177 ;
178 [label="gini = 0.128\nsamples = 624\nvalue = [581, 43]\nclass = 0", fillcolor="#e78a48"] ;
176 -> 178 ;
179 [label="profit_to_asst_tot_chg_1y <= -2.205\ngini = 0.268\nsamples = 1696\nvalue = [1426, 270]\nclass = 0", fillcolor="#ea995e"] ;
171 -> 179 ;
180 [label="COGS_to_asst_tot_chg_1y <= 0.021\ngini = 0.441\nsamples = 195\nvalue = [131, 64]\nclass = 0", fillcolor="#f2bf9a"] ;
179 -> 180 ;
181 [label="gini = 0.201\nsamples = 53\nvalue = [47, 6]\nclass = 0", fillcolor="#e89152"] ;
180 -> 181 ;
182 [label="gini = 0.483\nsamples = 142\nvalue = [84, 58]\nclass = 0", fillcolor="#f7d8c2"] ;
180 -> 182 ;
183 [label="days_rec <= 0.293\ngini = 0.237\nsamples = 1501\nvalue = [1295, 206]\nclass = 0", fillcolor="#e99558"] ;
179 -> 183 ;
184 [label="gini = 0.189\nsamples = 1125\nvalue = [1006, 119]\nclass = 0", fillcolor="#e89050"] ;
183 -> 184 ;
185 [label="gini = 0.356\nsamples = 376\nvalue = [289, 87]\nclass = 0", fillcolor="#eda775"] ;
183 -> 185 ;
186 [label="eqty_tot_to_asst_tot <= -0.847\ngini = 0.015\nsamples = 783074\nvalue = [776994, 6080]\nclass = 0", fillcolor="#e5823b"] ;
124 -> 186 ;
187 [label="eqty_tot_to_asst_tot_chg_1y <= -0.472\ngini = 0.099\nsamples = 8557\nvalue = [8112, 445]\nclass = 0", fillcolor="#e68844"] ;
186 -> 187 ;
188 [label="AR_to_asst_tot <= 2.365\ngini = 0.201\nsamples = 1458\nvalue = [1293, 165]\nclass = 0", fillcolor="#e89152"] ;
187 -> 188 ;
189 [label="eqty_tot_to_asst_tot_chg_1y <= -0.473\ngini = 0.191\nsamples = 1430\nvalue = [1277, 153]\nclass = 0", fillcolor="#e89051"] ;
188 -> 189 ;
190 [label="RE_to_asst_tot_chg_1y <= -0.581\ngini = 0.188\nsamples = 1427\nvalue = [1277, 150]\nclass = 0", fillcolor="#e89050"] ;
189 -> 190 ;
191 [label="gini = 0.314\nsamples = 195\nvalue = [157, 38]\nclass = 0", fillcolor="#eb9f69"] ;
190 -> 191 ;
192 [label="gini = 0.165\nsamples = 1232\nvalue = [1120, 112]\nclass = 0", fillcolor="#e88e4d"] ;
190 -> 192 ;
193 [label="gini = 0.0\nsamples = 3\nvalue = [0, 3]\nclass = 1", fillcolor="#399de5"] ;
189 -> 193 ;
194 [label="cf_operations_to_asst_tot_chg_1y <= -0.04\ngini = 0.49\nsamples = 28\nvalue = [16, 12]\nclass = 0", fillcolor="#f8e0ce"] ;
188 -> 194 ;
195 [label="cf_operations_to_asst_tot <= -0.122\ngini = 0.375\nsamples = 16\nvalue = [4, 12]\nclass = 1", fillcolor="#7bbeee"] ;
194 -> 195 ;
196 [label="gini = 0.0\nsamples = 4\nvalue = [4, 0]\nclass = 0", fillcolor="#e58139"] ;
195 -> 196 ;
197 [label="gini = 0.0\nsamples = 12\nvalue = [0, 12]\nclass = 1", fillcolor="#399de5"] ;
195 -> 197 ;
198 [label="gini = 0.0\nsamples = 12\nvalue = [12, 0]\nclass = 0", fillcolor="#e58139"] ;
194 -> 198 ;
199 [label="AR_to_asst_tot <= 1.637\ngini = 0.076\nsamples = 7099\nvalue = [6819, 280]\nclass = 0", fillcolor="#e68641"] ;
187 -> 199 ;
200 [label="prof_operations_to_asst_tot <= -0.215\ngini = 0.064\nsamples = 6526\nvalue = [6310, 216]\nclass = 0", fillcolor="#e68540"] ;
199 -> 200 ;
201 [label="Sales_to_asst_tot_chg_1y <= -0.38\ngini = 0.353\nsamples = 35\nvalue = [27, 8]\nclass = 0", fillcolor="#eda674"] ;
200 -> 201 ;
202 [label="gini = 0.0\nsamples = 3\nvalue = [0, 3]\nclass = 1", fillcolor="#399de5"] ;
201 -> 202 ;
203 [label="gini = 0.264\nsamples = 32\nvalue = [27, 5]\nclass = 0", fillcolor="#ea985e"] ;
201 -> 203 ;
204 [label="AP_st_to_asst_tot_chg_1y <= 4.035\ngini = 0.062\nsamples = 6491\nvalue = [6283, 208]\nclass = 0", fillcolor="#e68540"] ;
200 -> 204 ;
205 [label="gini = 0.06\nsamples = 6463\nvalue = [6262, 201]\nclass = 0", fillcolor="#e6853f"] ;
204 -> 205 ;
206 [label="gini = 0.375\nsamples = 28\nvalue = [21, 7]\nclass = 0", fillcolor="#eeab7b"] ;
204 -> 206 ;
207 [label="avg_BCI <= 0.344\ngini = 0.198\nsamples = 573\nvalue = [509, 64]\nclass = 0", fillcolor="#e89152"] ;
199 -> 207 ;
208 [label="AR_to_asst_tot_chg_1y <= -1.212\ngini = 0.262\nsamples = 349\nvalue = [295, 54]\nclass = 0", fillcolor="#ea985d"] ;
207 -> 208 ;
209 [label="gini = 0.0\nsamples = 4\nvalue = [0, 4]\nclass = 1", fillcolor="#399de5"] ;
208 -> 209 ;
210 [label="gini = 0.248\nsamples = 345\nvalue = [295, 50]\nclass = 0", fillcolor="#e9965b"] ;
208 -> 210 ;
211 [label="debt_st_to_deb_tot <= -3.043\ngini = 0.085\nsamples = 224\nvalue = [214, 10]\nclass = 0", fillcolor="#e68742"] ;
207 -> 211 ;
212 [label="gini = 0.0\nsamples = 1\nvalue = [0, 1]\nclass = 1", fillcolor="#399de5"] ;
211 -> 212 ;
213 [label="gini = 0.077\nsamples = 223\nvalue = [214, 9]\nclass = 0", fillcolor="#e68641"] ;
211 -> 213 ;
214 [label="debt_st_to_asst_tot <= 1.115\ngini = 0.014\nsamples = 774517\nvalue = [768882, 5635]\nclass = 0", fillcolor="#e5823a"] ;
186 -> 214 ;
215 [label="prof_operations_to_asst_tot <= -0.053\ngini = 0.011\nsamples = 671532\nvalue = [667666, 3866]\nclass = 0", fillcolor="#e5823a"] ;
214 -> 215 ;
216 [label="debt_st_to_eqty_tot_chg_1y <= -0.0\ngini = 0.033\nsamples = 43642\nvalue = [42907, 735]\nclass = 0", fillcolor="#e5833c"] ;
215 -> 216 ;
217 [label="roa <= -1.8\ngini = 0.029\nsamples = 40064\nvalue = [39473, 591]\nclass = 0", fillcolor="#e5833c"] ;
216 -> 217 ;
218 [label="gini = 0.084\nsamples = 1816\nvalue = [1736, 80]\nclass = 0", fillcolor="#e68742"] ;
217 -> 218 ;
219 [label="gini = 0.026\nsamples = 38248\nvalue = [37737, 511]\nclass = 0", fillcolor="#e5833c"] ;
217 -> 219 ;
220 [label="exp_financing_to_asst_tot_chg_1y <= 2.017\ngini = 0.077\nsamples = 3578\nvalue = [3434, 144]\nclass = 0", fillcolor="#e68641"] ;
216 -> 220 ;
221 [label="gini = 0.075\nsamples = 3571\nvalue = [3431, 140]\nclass = 0", fillcolor="#e68641"] ;
220 -> 221 ;
222 [label="gini = 0.49\nsamples = 7\nvalue = [3, 4]\nclass = 1", fillcolor="#cee6f8"] ;
220 -> 222 ;
223 [label="asst_tang_fixed_to_asst_tot <= -0.828\ngini = 0.01\nsamples = 627890\nvalue = [624759, 3131]\nclass = 0", fillcolor="#e5823a"] ;
215 -> 223 ;
224 [label="inc_financing_to_asst_tot <= -20.021\ngini = 0.019\nsamples = 152437\nvalue = [150983, 1454]\nclass = 0", fillcolor="#e5823b"] ;
223 -> 224 ;
225 [label="gini = 0.0\nsamples = 3\nvalue = [0, 3]\nclass = 1", fillcolor="#399de5"] ;
224 -> 225 ;
226 [label="gini = 0.019\nsamples = 152434\nvalue = [150983, 1451]\nclass = 0", fillcolor="#e5823b"] ;
224 -> 226 ;
227 [label="RE_to_asst_tot <= -0.159\ngini = 0.007\nsamples = 475453\nvalue = [473776, 1677]\nclass = 0", fillcolor="#e5813a"] ;
223 -> 227 ;
228 [label="gini = 0.017\nsamples = 65770\nvalue = [65214, 556]\nclass = 0", fillcolor="#e5823b"] ;
227 -> 228 ;
229 [label="gini = 0.005\nsamples = 409683\nvalue = [408562, 1121]\nclass = 0", fillcolor="#e5813a"] ;
227 -> 229 ;
230 [label="profit_to_asst_tot <= -0.228\ngini = 0.034\nsamples = 102985\nvalue = [101216, 1769]\nclass = 0", fillcolor="#e5833c"] ;
214 -> 230 ;
231 [label="AR_to_asst_tot <= 1.848\ngini = 0.079\nsamples = 7744\nvalue = [7423, 321]\nclass = 0", fillcolor="#e68642"] ;
230 -> 231 ;
232 [label="inc_extraord_to_asst_tot <= 0.812\ngini = 0.07\nsamples = 6868\nvalue = [6620, 248]\nclass = 0", fillcolor="#e68640"] ;
231 -> 232 ;
233 [label="gini = 0.065\nsamples = 6666\nvalue = [6441, 225]\nclass = 0", fillcolor="#e68540"] ;
232 -> 233 ;
234 [label="gini = 0.202\nsamples = 202\nvalue = [179, 23]\nclass = 0", fillcolor="#e89152"] ;
232 -> 234 ;
235 [label="debt_lt_to_asst_tot <= -0.536\ngini = 0.153\nsamples = 876\nvalue = [803, 73]\nclass = 0", fillcolor="#e78c4b"] ;
231 -> 235 ;
236 [label="gini = 0.124\nsamples = 799\nvalue = [746, 53]\nclass = 0", fillcolor="#e78a47"] ;
235 -> 236 ;
237 [label="gini = 0.385\nsamples = 77\nvalue = [57, 20]\nclass = 0", fillcolor="#eead7e"] ;
235 -> 237 ;
238 [label="AR_to_asst_tot <= 2.323\ngini = 0.03\nsamples = 95241\nvalue = [93793, 1448]\nclass = 0", fillcolor="#e5833c"] ;
230 -> 238 ;
239 [label="profit_to_asst_tot <= -0.036\ngini = 0.027\nsamples = 89802\nvalue = [88566, 1236]\nclass = 0", fillcolor="#e5833c"] ;
238 -> 239 ;
240 [label="gini = 0.036\nsamples = 42659\nvalue = [41872, 787]\nclass = 0", fillcolor="#e5833d"] ;
239 -> 240 ;
241 [label="gini = 0.019\nsamples = 47143\nvalue = [46694, 449]\nclass = 0", fillcolor="#e5823b"] ;
239 -> 241 ;
242 [label="eqty_tot_to_asst_tot <= -0.771\ngini = 0.075\nsamples = 5439\nvalue = [5227, 212]\nclass = 0", fillcolor="#e68641"] ;
238 -> 242 ;
243 [label="gini = 0.135\nsamples = 1251\nvalue = [1160, 91]\nclass = 0", fillcolor="#e78b49"] ;
242 -> 243 ;
244 [label="gini = 0.056\nsamples = 4188\nvalue = [4067, 121]\nclass = 0", fillcolor="#e6853f"] ;
242 -> 244 ;
}